0.7011268782620812 1.0247987154056861 0.8934775104832628 0.7603941584372169 0.3920181408123091 -0.9318181873845417 0.081548047404501 1.972141383085401 -0.004894604159070277 1.042807449429887 0.9655375602372538 0.7849872499949427 -0.03127409510379858 1.9030424978588445 0.38014894753017564 0.05916909968632864 -0.9366062634894157 0.46694075374488075 -0.05176405332892235 0.2720148005232024 0.5637916106684626 -1.0420468689551825 0.2654843898250963 -0.09306912652195659 -1.7466093522960198 0.09610428490041918 -1.2695866592234282 -0.6439262001210877 0.5588651006960529 0.907920578675152 -0.0849839099042848 1.2941027460179397 0.1287993785586193 1.5655010863120884 1.4380048647969934 -1.9245265504830245 0.5982720743934005 1.236784384571102 1.2986409761723878 1.2294152999625148 0.45007939948301223 0.03968293979533436 -0.7840028637179466 0.5490364284114033 1.5569593972358602 -0.6126136250930748 -0.4772399012226884 -1.0482664810148146 1.549320137670947 0.5378239823690046 1.0262767863931008 0.8305921765108173 -0.045223224951295 1.633579140584722 0.5733351053443557 0.3577674585414037 -2.9682429441381455 -1.4731867065819497 0.8770830036579429 1.4772205798280533 1.3247774071060938 -0.5847732615117428 0.5447294298849185 0.3593836801767743 0.7398894554552028 0.2318348342068874 -2.437217310655735 -3.091796381493928 -1.939517601452411 0.46907581657260833 -1.6000436819061035 -0.9729259329406176 0.8623854337819187 0.4698291769937249 1.4711020341392582 0.06128000193477678 0.7355556473077057 -0.7183926156617844 -0.6561431472433998 1.6086303626414007 1.894339350887376 -0.19035949094637755 -0.5856515781273186 1.0754515628960304 0.8286611231173264 -1.1112861648655332 0.5374615263345949 -0.5622199101314528 -0.49326372353041187 0.7943347936802264 -0.45002024444634126 0.6049537172133975 -1.3695500512529695 -0.7066161726280615 1.080713516105707 1.545443559020765 0.6210379658375268 0.4233353063162343 -1.0562627046887172 -0.24014651951655488 2.372410407995722 -0.16985421379168372 -0.4794388539766646 1.346032428491761 -0.7915874323427505 0.5980763510289426 -0.8185670786717392 0.05562401745220893 0.27148629751605013 -1.2600167734680419 -1.0846269750116906 -3.7553187282915155 -0.3645135308300285 -0.45435623015494336 1.289125639746653 -1.5578125469192337 -1.8594681741587418 0.6502177055436904 0.02585723802938999 -0.32236009158346557 -0.831665692342425 -0.5326658165680781 1.117768215956687 -1.1098789941051352 -1.8397324410090072 0.14260639920356505 -0.604598449275067 1.6928743735560208 -0.1578243916577399 0.19239546275877592 -0.10601224910293301 0.6062357479538685 0.7433088380218231 -0.969827952235651 -1.0090389890243505 1.8364855010385848 -0.6440484285767357 0.2745199160600208 0.8160016917126276 0.278824578040043 -0.24416059766427228 -0.008618406313835406 0.3610124188018746 3.033985323579889 0.8188641402789607 -1.4722047170379073 0.07596022274157115 1.3239502969492165 0.08437498066883706 -0.32961532700261204 0.7705412120951616 -0.317933262564844 0.5394726636038987 0.0017247174038432247 2.963126004859067 1.4449131360383565 0.4368390727554544 -1.4131125649067238 0.772920268558363 0.0663920934285782 -1.3205367345678283 -0.30105583432554345 0.18039603282560904 0.8514877189622062 0.3797681086355436 -1.3247026553860644 1.8098869123430632 -2.7835825622340447 -0.23165392700281817 0.32771143308744527 -1.4313431429630257 -0.4686375409522901 -1.8610397669355199 -0.0958925848105583 -1.0178615311432646 0.8042773414314259 -1.8202588836455742 0.4420643305987261 0.3354764179771172 0.010695388001387541 1.3382048217936484 -2.2192850868152307 0.6947395243628216 -1.3837058312869166 -0.06957354950982485 0.5207498854841405 -0.15808777586965556 1.7859176223028246 0.7692193292452764 -1.463661546874744 -0.2951849670974537 1.4348585057148133 0.9691408868168013 0.8073232087204508 -0.2104472669276199 0.6196729498564668 0.18262288057669973 -0.3664492080828267 -0.16612103194248884 -0.2544781966705699 -1.25186198559423 0.11865750337897107 2.5097248834439188 -0.43330732423165913 0.4190788853291077 3.129474271794605 -1.1575789544510564 -0.06050160897330442 -0.6508723066678739 -1.1093495487789289 -3.683001344646714 -1.5543070843816706 -0.6411189681958552 -1.5403049849998764 0.0777540436303553 -0.39956421799796105 0.7609741336277163 -0.14255301757901373 0.21686105551627388 1.2283936227564023 0.7516179766800387 0.6799640640833545 -1.8534688212756467 -0.821788115896385 1.161362823160858 -0.322184493795727 0.7200493412153456 0.6380399296079158 -1.0460052946077467 0.8274627360119091 1.4448501425352798 1.1435525903122592 -0.24295642010578805 1.1448204542882954 0.44875883928138977 -1.5984143636054238 0.22022106603799385 -0.12910008210201465 -1.0918102295513201 0.7981209868410601 -0.11598306844446542 0.5687330669514684 0.7852358810307039 0.954052101867039 -0.23412118483534705 -1.180408347772872 1.4365120644382994 0.704787564022805 -0.35637242796726365 -2.5567214017770152 0.49151653014506436 -0.512661395222892 -0.7995737675292129 0.3597585228599482 1.0027258562041834 -0.5142403693755696 0.1581525057298429 -0.0758021806984348 0.25966758753972213 0.4553344811196645 -2.0599785288447716 -0.8813266913351043 0.8918906402571752 0.5998031704809633 0.10316895331387625 1.3251597812050449 2.1882185736863007 0.8961391666485835 -0.3256661319720554 -0.32709841136907364 1.2317609561350717 -0.31429199563382504 1.1400802426382393 -0.2565443206914175 -2.4379867981215066 -0.10978931443509383 1.4611707632295967 -0.010377019137596746 0.15662315701950308 0.6459936018908519 1.3377999601065678 1.2785887971031527 0.3685939634338127 0.12302398390291733 -0.6511829686814418 0.995369582357096 0.36087930675050456 0.851651771900046 1.3185217614042393 -0.14233196130018458 -1.071798395649004 1.2902981610411344 -1.2537194651779988 -0.4111713748773391 -0.3725946146367219 -0.05931762529774172 0.18616797997175516 0.4506476269582884 -0.400263741506734 -0.5780992007782354 0.48172876438737866 -0.08925745426265826 -0.2552423768449803 0.9546307258858336 -0.38930481879340234 3.01331833659194 1.408033321079602 0.8150837636817267 0.7651998379450791 0.2645746834330426 1.7719968648143467 1.2497123714516027 0.6576261705760618 0.46595721812945395 0.3833233250404711 -0.7813747931695456 -0.36165557126726766 0.42865410401738463 -0.47763379763699076 -0.6971199746092329 0.07782302956889986 0.28902042534850303 -0.36191955795409225 2.234511487838581 2.8485503580177713 -0.7891874787992946 0.2073893449885097 0.6729971920319796 0.6197972465698501 -0.9141332166007176 -0.12363112425695613 0.5223171318309893 -1.6861637552261417 1.7575033402726286 -0.15206456622015221 1.3044482892214053 -0.14613573852120465 0.17478880092709442 0.22358848717889 0.5637409688189134 -0.7675550920109747 -0.745723608598999 0.1919408263742028 -0.4878685729584775 0.021655191831417002 -0.8931794029231008 0.361957099070087 0.9917180701921303 -1.8592026321343245 -0.04749907754642301 -0.4191430287931948 -0.5993009097799836 0.6686356733121871 -1.238396012190355 0.042279015806605084 -1.1665484527690724 0.954250488796521 -0.2189917642330949 0.8305669652584231 0.31807921230728764 0.35672928298273365 0.4905278239408624 -0.1980299536220497 1.5352730412327 -2.5942783276629724 -1.3113387049916185 -0.8917854957907442 -1.3671676991400699 0.06531890208037124 0.7797543271766556 0.196460064132232 -0.8916720375667737 0.47650618825478236 -0.6129192309243022 0.8621906678977234 -3.3902660479275735 -0.229966443936141 0.3411767209506249 0.881530859763195 0.6862049953797404 -0.7845196677487171 0.8898497237452871 -0.6903367761952635 0.3621649042871467 0.18599900816634016 0.7747385758888249 0.13610827050393495 -0.24061396542047714 0.05859706804945018 -0.03772797358072989 -0.06306345697597775 0.31188011613140926 -0.4015403185384146 -0.41899001576748707 0.3256203299063157 1.749688681749763 0.518631392988071 2.3109248452287394 -0.4128045174452264 0.5224112600084703 0.3758072289247402 -1.883655567241664 1.0362463678336598 -0.40813791732443616 -0.47698624095028924 -0.3750048842043419 -1.1920184198743617 -1.7963241182111929 1.8062481834077277 -0.27932798561036143 -0.8470731488729066 0.059199310898127265 0.07551131098081917 0.2876742624498071 0.4594661977103501 -1.0628221585687017 -0.353476143651324 0.7541748808744945 1.5229556653721963 -0.8886410973542648 -1.312950013642127 -1.4504471685465223 0.28326954944731586 0.6785333437860377 -0.9533489942266421 0.23554754186761045 0.4240041504843989 -0.2523726870206063 0.867002932694527 0.16522844507738038 -0.6969571611077481 0.347881270463004 -0.001527701004327553 -0.062353522321514344 -2.1003960379707065 -1.7096577712861856 0.5432758138630873 -2.0417064403859118 0.3961904561633749 0.9884198057922485 0.47036837666560705 0.9566229345799468 0.290221070057981 0.0956051943566224 0.006886430908586774 -4.150519963620363 0.32153648315730604 1.216848011528279 0.42174483408770763 -0.4643815647613198 1.0031373519378972 0.30813257624816753 0.6494746354111821 -2.732730192020997 0.5970318660868761 1.1492909742041895 -1.2997537537275112 0.9070622885840205 -0.23184013308299084 -0.09533051399558476 0.8786445110893872 0.6805694965452426 0.6810238756869753 0.37139895791020433 -0.3027208930609347 1.4539265960916092 -0.973544311671492 0.7660679737477336 0.25726444483744465 0.21672184905857447 0.9875045434448884 -0.26047386392787447 0.622358496717918 -1.1496194856962467 -0.3032275670222655 -0.24186957853319763 -0.6094286644934845 -0.4136081206333604 -0.968676408195936 -0.9274342620169319 0.5710413930617364 -0.13218383719130167 0.5954130644460558 0.21739312423041748 -0.4137629251987607 -0.6868750433388439 1.2895971983152708 -0.8650807076965928 0.8009395499260215 0.7125142612281691 0.5943578913457045 -1.3887333539635318 -1.3051462621580663 0.5361835879439425 0.7361467600789766 0.4132621282385914 -0.5596170988691442 1.2697011781285743 -0.14642808752687536 -0.7683451109547027 1.3252972117268553 -1.1207309868212654 0.12443590498748186 -0.5591865232414047 -1.1058850749640141 0.2525045065860349 0.33058403277179227 -0.07106694009906687 0.24574295322144696 -0.14522099442475078 -1.1648626909356383 -0.28576866960718433 0.2152273706681362 1.581275448384347 0.07717268894638635 -1.7738125249501464 0.6040088451218747 0.4356959657506271 -0.7333056372527836 -0.28093756986104046 0.8833850745328213 -0.9133582381112495 -0.6589639567765095 -0.6018142387970452 0.32226657395939806 0.20686043838694443 0.5426520743669883 -1.0172618226210435 0.75006515928501 -0.6442407681951573 0.3691763424709821 0.6635463968068454 -1.1179156076233172 0.6208594004531839 0.43961692183388157 0.1578153963289106 0.6707981347411381 0.3442905801042739 0.30760099318123685 0.42008770609832535 0.9807934191469927 -0.04674197872888702 -1.4174080240007565 -3.4965928841750635 -0.2406085404711755 0.08718576085556472 -0.6019799852763886 -0.23469945484182392 0.5247242864956068 -0.7607623846215955 1.2531889170503974 -1.397981834462864 -0.22358656870248927 0.15626357970699511 -0.022462089389596738 -0.30332513621991836 -0.3296631889835482 -1.9048873225372078 -1.2173266505573874 0.2771852280182645 0.6805202079370449 -1.273035253968468 -0.029995839840905363 -0.5022061705821909 1.1175400636050083 -0.19369396484924428 1.0987669585315705 0.37788842752881513 -0.2645697677322456 0.9202907871177527 2.0824675674272455 1.8867135539984254 0.31274671428902323 -0.17427989256075774 -0.860038981910822 -0.20092201789054462 0.4681326989671166 0.8849327900674533 -0.753371623919359 0.1375187901256461 0.6840646641357836 0.2043113694481892 1.163028554314589 -1.0559347578509692 2.0360878799883984 -1.782052287948152 -0.006373901662302342 -0.06271456964366688 0.26875476808205406 0.6363325693542156 -0.250320290785157 0.33072813110726473 0.45610309138618976 1.0714004001775737 0.0389789856881601 -1.3132585485284818 -0.010905205797457481 -0.158413414308037 0.04584852539598001 -0.10345859475261608 0.7970807984661077 0.7826986858780335 -0.1329407666083862 -1.071248774892036 0.606513216007077 -0.7829824433898693 -0.7085343689644731 -0.09446655606997954 -0.47028509621256664 0.3403926590100888 0.3372567292448975 -0.6118538748453702 1.4533721236130097 0.10103875494439239 -1.8345043296087418 0.0727754152523518 0.5861221080572476 0.46918927365758006 -0.8039764310677343 0.3146428977054581 -2.0391105612458302 1.0184345142984912 0.4440953186607542 1.333728747062047 -0.8698872858111406 -1.3416365043585567 -0.6658980452947498 -2.177826522332706 1.2236855046356359 0.0850067272808022 -0.10892021384200393 0.2304769458720596 -0.4674839047485289 0.278331416912614 -1.002525698842425 -0.5483327436102413 -0.3649520920859567 -0.41550108974202987 -0.1622666512841647 -0.17167091681519775 1.0529766838282844 -0.47625598543481457 0.688673168233712 -0.38674829186282783 0.5462615878054746 0.5391208044822408 -1.4924637253524489 1.315971314724255 0.33503736122150457 1.3236903325758393 0.019455161680578387 -0.16221381693206707 0.03765420991077342 0.8362932630482055 0.8445659182219291 -0.2632490829209683 0.24826919862623903 -2.115020897077071 -0.01792598521535354 -0.7953963533443006 0.1960090240982446 -2.1185831933222548 1.4064648844757095 -0.06465433464922117 -0.5132117663509422 -0.4345178177382605 0.2409841581252494 -0.4035471044822944 -0.9764085358411082 0.5146045064850702 -0.15197262582340756 -0.013544130815498863 -0.1319547613040402 0.21949802154581677 0.5776672729329618 -0.3048857176150614 -0.16992000196749948 1.6240823439894854 -0.4630265331232296 0.19454157867966201 -0.12121027650732945 0.9933911073124653 -2.3992136460518805 -1.5526044881786465 -0.9318766951674028 -1.1840793891073076 0.5231528413884233 -0.45073994080846835 -0.14182099729933062 0.344223551495396 -0.4066975630337566 1.0684863558770745 -1.2685458853546063 0.1371238663026584 0.594608107248836 -1.2173485277246783 -1.059273116866623 0.6585478414690654 0.905077079665958 0.48740777709428074 -0.1649443735783283 -1.0637477239442308 -0.8897620439531234 -0.37508147560408295 1.3556818335569512 -0.12753459117995058 0.21063117466858805 1.6734518944467844 0.31578828196797315 0.2823449111096103 -0.5517409407192982 0.31750080795292257 0.0168748738299321 1.0540257340932462 -0.5787267513888248 -1.6238569824009468 -1.8099718983719089 0.9650764754373935 0.0499031758214952 -1.4387350528801288 0.8811060530978635 1.6022018970793488 0.4776048208161162 0.794832381092087 -0.46700376671598465 0.1837730279242751 1.293865337537712 -0.311788365422148 -1.2212593084053782 0.794866255541855 0.07183479387556704 1.4338574039273624 -0.3243741269150356 0.8150510507871012 0.19086291222090374 -0.563996603809014 0.03232795382079848 0.8115929656053917 0.4784289563267202 -0.057141425530665674 -0.4009956017487112 0.0011131696613327364 1.1379540516075226 -0.6339167603194462 -2.360119692894841 0.8375467617757882 -0.8845344191617861 1.448788551725248 0.34685072907982406 0.6670018805786728 0.2816676644281742 0.5004767112017835 0.7901785955035647 0.3949857251779636 -2.491623984688254 -4.08608811409323 -0.3189217971578876 0.2773380311849477 0.8384846270451376 1.5223520181590893 -0.9735503405648592 0.011446306872990596 -0.9786367044309409 -0.460322288794726 0.6188333287517979 0.5169824423850903 -2.036055825325574 0.8240190240318741 -0.25240955482099386 -1.9263513982011466 1.5385326698639976 0.9639030983029246 -0.7790102251284164 0.39544778718824963 -1.4681396157425441 -1.104621942240409 -0.42417096262735754 0.27638830894600225 0.019337364163982376 0.6696998433420354 0.107204258861343 0.34817297212540976 -0.14270849572461825 -0.03518967738983197 -0.932821294650077 0.3901433709768675 -0.17191674411511065 -0.45380411228259065 -0.23195620025813485 0.1784401703625569 -1.1248894098042168 0.9731084740366347 -0.7313476267688991 -0.6045697514039149 -1.604751400265136 0.9065394147518224 -1.3684965325565905 0.7023797844523012 0.7411039580903995 0.9291399015158126 -0.07422664237753403 0.38478841935909996 0.3029840427430207 -0.1894870168007331 0.16189683771364924 -0.4151708328293809 0.3631548016549555 -0.25706011191883144 0.6579386171683906 1.7300635275833631 0.4982863306733645 0.37997554338107403 0.8945654789469651 0.14745276257612533 -0.9598108181400663 -0.0875501331535981 1.210535188289607 0.07347572522590633 -0.4761661344410469 0.9244291452705915 2.0522695581968966 0.09774897113291109 1.1570877904322918 0.2532442964216156 -0.019833291271970376 1.0904371030881337 0.6695013132713846 -1.199022711549969 0.8367863445763816 -0.0720890517329864 -0.3678201965251451 0.024559210934270822 0.8439206254493781 -0.31375460925475807 0.5287443299291261 -0.31655284129431044 -0.9367899090693743 -0.5951387010133976 0.5590956733848017 -0.48711369084519635 -0.19541937377032728 -0.12910980933836594 0.6060707886258666 0.508951730777846 -0.8034867650433177 -0.2657965811126047 0.33934796160078684 -1.413683925358317 0.5105094713882904 -1.4175506274936422 -0.375766969401416 0.07205918626687324 -1.373195847012312 -0.6315430754731148 -0.8469682363458279 0.6740737082955977 -1.264586372940981 -1.1147280462102591 -1.3118562261304003 -0.348765686617848 0.41007604608030285 0.5548612528307353 0.3435885952268887 -0.8966671570102123 0.8021087444161202 2.301594513131461 -0.09987147535340564 -0.5035073437890621 0.7643435097623881 -0.7316486064185458 -0.7563382382116158 0.311115058844802 0.36262294589058836 -0.83820925920911 0.1622843467381378 1.2800487090393058 -2.7029006231864185 -0.6641427503741556 -0.39181915616269597 -0.0421064882971114 -1.2443573721635364 0.7773919518364516 -0.046768666604727144 0.5607306094374092 -0.7893002360535544 0.9314611212644004 1.7827694293196956 0.3133211734719849 -0.8391238540806862 0.017689303929200956 -1.539657401139491 0.5089363164210255 1.5415595652136533 1.107046175369242 0.6561358083949128 -1.0084869492428257 -1.6219669925306979 -0.8684040386939628 -0.7259963087701284 0.6795629738705851 -0.41941030085704323 1.3975553661514863 -0.3742024015097226 1.2346869240618603 -0.7027204824881293 0.6339947118303462 -1.4638831066320586 -0.1805773803024767 -0.5253536241729696 -0.7484222329904268 0.8288679219965963 -1.8668363229135987 0.027720317390825602 -0.16139909175077521 1.2125068353787816 -0.04159623497427347 -0.8314977301503096 -1.2635645298719687 0.840020854512348 0.5527708406575181 0.8405203494929049 -0.6668007088709577 0.23625373803164054 0.3250988228862941 -0.27930532670068725 -0.2616769917300516 0.5664054480080789 0.27038325193924867 -1.1727416322565798 -2.187080216544984 -0.44343689889713345 -0.9890248524703248 0.21518756561020155 -0.49056631543299534 0.22367265177939769 0.36391458172241214 -0.6598531160096058 -0.6349280698962037 0.4945085095565298 0.026088893870167714 0.5505046491477641 0.0956948793900993 0.3886624078315392 0.25581479233843035 -1.2388895747902848 -0.6472935600033186 -0.11669338407878986 0.6184415288063236 -0.16311439080283385 0.1299542505815453 -0.06644829958744648 0.867622026421519 -0.3653550738317146 0.3819922508845525 -1.0704193031707896 -0.10001588048530975 0.5319416154846539 0.4739974356257651 0.5372999544972232 0.1928662515518965 -1.5053451323052889 0.9157392819948817 -0.614495208830318 0.6873778417296025 0.36376044801084856 -1.3689315934646145 1.0036002832297053 0.2039559634404716 -1.0531228028972661 0.5570088983885687 0.7571419436211048 -0.3936016929866112 -0.10790485697419727 -0.04390691126788634 -0.26139473651092804 1.7737464126170435 0.6986027845402771 0.4328822770974006 0.7948503133957956 -0.9498113646945102 0.5224479050144715 0.877683051014923 -0.7526277181569382 0.011854136479114577 -0.7314969049140876 0.5534078467276714 -2.2150192033307414 -0.1324968515636864 -0.22567568147989303 0.06190532384335706 0.4139884567548001 0.8788168211350609 -1.226429497487222 -0.32060551571538587 -1.2184028889421459 0.8699901006100064 0.31856709221981794 -0.2190807982021601 1.794284458881875 -0.49101247267353604 0.2995063707501161 0.24223389423053074 1.1390879719352585 -0.6221427447845109 -0.8301466015838314 -0.4344481381068743 -0.45159136908656633 0.9422290939558627 -0.28047456268111504 -0.5845255408381018 0.16664283615673606 -0.7310937220334511 0.061692646982527334 1.3613496542138797 0.7808063903942907 1.065969966664641 0.08325678708488789 -0.6872017378533447 -0.2551464430432071 0.3797341127468172 0.3882341355555118 0.2631139471018458 -0.7340195352642152 0.0818282113325575 -1.0205862059126776 0.37353846669668056 0.26281876494138695 -0.16659674443714814 0.6728185482172103 1.5357090286824897 0.6494354708655917 -0.09433085380582272 0.0761542092160241 0.5324556236333816 0.8128905834766701 -0.16494614461080656 -0.518467268929353 -0.9274050758787172 0.5385254564130864 0.020788069547525375 -0.42520018731801484 0.29000562000272534 -0.2532517128589091 -0.5217590146775722 -0.010572975784278644 0.8992513298195016 0.31956945532947595 -0.8375655619407542 -1.1554819838681383 -0.9781473809376017 2.4063013942530245 -0.3124010991266264 -1.157889946637098 -1.0760619358119907 -1.108850717395346 -1.5630055211769183 -1.2904859374305804 1.206696710448205 -0.5015916223221665 -0.7669150790913595 0.6489524593522285 -0.12083066915254889 -0.33985683227966457 -0.6821890834824691 -0.4071364422002277 -0.8941879115993925 1.2663988708162544 0.5747778177029912 0.8313749882897765 -0.4751148876657919 -0.06411341992564049 -0.3312185841875722 -1.5639073824429772 -0.08387415261605277 0.6814534974820978 0.6991775700838123 -1.6896399710289167 -1.5546391740863577 -0.897339933518087 -0.5590112303475743 0.6181231833774166 1.6258495962999322 0.9540163951075203 0.8803816488418944 -2.564804722952022 0.0307347211239706 -0.4964411241483451 -0.21815292586241072 -0.2452324401666891 -1.0118272369985795 -1.4497312112641978 2.6715739424281417 -1.1101145586490997 1.9424570778861574 1.281116624445848 0.07821675803796911 0.4194773450264498 1.7529305826267334 -1.6179790100795357 -1.063872384522402 -0.9159904150242173 1.4180116209578844 -2.0192456525635807 -1.049235242874776 0.5099920901143821 0.8006583917230607 -1.378925127032815 -0.5225611395278448 0.27281928232027153 0.1477377111865332 1.4813881905098951 0.6744795494914908 -0.22976028547781768 -0.9963774815238289 -0.3693847915810681 0.41193676078328145 -1.411685197097666 0.5885597961581807 -1.8832130299858905 -0.06616222952121494 0.8803995824613757 0.5172730868557047 0.21963729754419176 0.625081380923728 0.09205929110249157 0.18269391166526722 1.2120101042496523 0.9177765455020657 -1.6835015377313982 -2.248370377362737 1.6733452861528255 -0.5789151647041063 1.054741724166996 -1.72594245259161 -1.2179715970480391 0.35031992467602713 1.6416302988676847 -0.774800367318168 0.542646962952249 1.2622369437565002 0.36917398150032826 0.8398569366398742 -1.359922167163489 0.0675485299586676 -0.21606445882216252 -2.285853501330492 -0.632228198523929 -1.0767307108813469 -0.25492139769967304 -1.0777037410989982 0.18920732077670394 -1.112226185743302 -1.3063138062103008 0.3386323135509617 -1.1540422381934181 -0.6496174070308195 -0.8225078927831361 1.2444770156018297 -0.33206768057921393 -0.399663703053162 1.3147042050684405 -0.16105244621499282 -1.6892087232649438 1.2047088408016053 0.6805125738137278 0.874978251788797 1.259000306919278 -0.16657177280312618 0.1432016382619837 -0.7368823948092822 -0.8589246207608433 -0.4739511514300013 -0.3855116993239612 1.313303262140476 -1.6442069845008038 -0.9932346393512027 -1.9503128449678755 0.5349052080369713 -1.9834497828392466 0.02847857428560869 1.3513816382575177 -0.7066400524317172 -0.41984111283593506 -1.1984469440799648 -0.4448707311962614 0.2285108104930387 0.5169831530112602 -0.7808931790067059 0.6017816430744748 -2.817744636076006 -0.2326592329142065 0.5293514496002801 -0.13557406817553747 1.7082708583635242 -1.3313316764322376 0.3208153019061381 0.3038152125733446 0.12328581865620684 -0.2332913682724498 0.7440901540103081 -0.7146837433373019 -0.13130254681743964 -0.11821334164458326 0.841285296390983 -0.6115165778893061 -0.200876540622224 1.062039025509504 -0.8169297209993462 0.0981226105973039 0.7258319205433292 -0.37256572633809726 -0.35483890599168244 0.13639177603963554 1.6559828059326664 0.662832929997409 0.6394261695806391 -0.9344638794447129 1.0575675718246484 -0.5105400061578653 0.49381604653230593 0.5313274623591339 1.6740641934865996 0.10925172035440273 -0.18273893130543412 -0.1938713557127895 -1.3758342968200161 0.4312824525885683 1.6890327305525803 0.8892335043345784 0.3671739037762855 0.3435841491967892 -1.2711626033299401 -0.12592796744727017 0.5977730494081354 -0.8623271489029454 1.5371291543395402 0.8937936696300661 -0.24681280797997351 -0.3870159607969474 -2.027633690732922 0.6174162406652955 1.9123248412858433 0.236838873755052 0.769729523324215 0.784265480826317 -0.34244141919987103 -0.2719114245890879 0.9952919988611275 0.03371852495037699 -0.8334662438463352 -0.06871315016085798 0.19094092762461 1.1525188017651211 0.5458998064691689 -0.05268070963726643 -0.1991442743781374 -0.18859446544906266 0.05289146166132526 0.761819518607139 0.7650828235404961 2.5329164799618233 -0.31010410901037216 -0.6105276034714935 1.0253143668623708 0.7990506513590346 0.11911650409127793 0.5830074540393289 0.876169091570696 -0.14003910783145385 -1.3744804673442823 -1.7744418491114125 1.437697306919403 0.4037945171705371 0.536019395810327 -3.3649846213946764 -2.349521425968699 0.23485923961087482 0.9473593051825279 -1.2077386105493493 -0.10131177906005073 0.24207746973322883 0.8144227940337018 0.3799083735077406 2.400415579439739 -2.035163041049736 -0.01586667957461538 0.9054874023935043 1.3650553759522104 1.732542228124441 0.34908715705778975 1.084013195840624 1.6235178996630142 -0.15766340045730814 0.21473071793913837 0.5402276074583346 -0.4688357005823367 -1.430563197884805 0.7146824636689129 -1.758701222618719 -2.435442502596331 0.38464724243648885 0.08099914524874628 -1.1491634910153974 0.22241346612248658 1.8458414426956595 -1.502813845800895 0.9781296323161368 0.11297811462027728 -0.13883471587478027 0.7760765267829612 1.2515786596796772 0.7034811250370404 1.2102115284643875 1.284893388523056 -0.3623377914691067 0.532537918786924 -0.6355262897387473 1.7850017792595239 -1.9186250875519442 0.6122187004819721 -0.027549960491124934 0.3235252918222493 0.4716763381327075 0.23252505526153117 0.006679596116266801 -0.5511187187150917 0.4224001256802594 -0.22892699499432623 -1.4596804517298618 -0.9433107825063718 0.3365292913459093 0.17916660164504003 0.124887186099542 -0.21931095007385465 1.0448625185343199 -1.134709641167962 1.9256547568300173 0.11703746453306028 0.27143274861549965 0.09094927682387671 0.6354572460393649 -0.1112205759248883 1.8715673568310998 -0.46517672114860614 -2.041653819615311 -0.11838345087140169 -1.8473425434217703 2.960084512212187 -0.13489328947622695 0.43268523015411775 -0.41358404435709767 -0.23070487343200669 0.3064350412174737 -0.14216775508716492 -0.9017154008884242 -0.32014603879637826 0.9771734280986558 1.2163619774533636 1.3027739493386787 -1.24070251368638 -0.258585415220181 0.3594172667744768 -0.5751845064984089 0.34097713070525787 0.73202954687621 -1.5551677668861914 -0.5792321049005031 -0.7783159280430181 -0.09474278641267109 -0.46389593031809984 -0.27210812706155396 -0.23505253606387932 -1.1027990139751804 0.025740555410281137 -1.0545480376725136 -0.4863929706244228 -0.0193547035773894 -2.15840891208462 1.1534478909430435 -0.06067579544026914 -1.3864212202317159 0.0852403521356758 -1.2227934609809266 -1.5531344339458686 -1.2259554564455661 0.048674490066461226 -0.5209577235601849 -0.5900157745377331 -0.21019807621617398 -0.1330319995872958 -0.03804559222818217 0.3190536712215506 -0.7619105869138342 -0.792462023265994 0.7179594406450465 -0.0810625744144937 -0.6857188142029093 0.5177015149644997 0.20828556985635233 0.6619424885914956 0.06465928010230867 -0.9964779827131593 2.0952237162720584 1.016143793950771 -1.426022163394831 -0.2507378343805517 -1.8530633660726124 2.116321241449764 0.30110392156894916 1.3495750034555072 -1.0877434543538087 0.06399628151293843 0.1671934299903168 0.3558155537341605 1.227281236796139 0.399845053810737 1.7715966227617475 -0.35424025301643347 2.465775485717964 0.8349887539704022 0.3355655834839642 0.6208662194616096 0.004042781715120921 1.9318511513715222 0.3623599336150004 1.3274508470865034 0.049576669359224675 -0.1972520999160812 -2.0329961248035984 -0.1521557960831098 -1.3374482269152708 -0.11874614486343638 -1.1525393922908336 1.2179120445095368 1.6947290902785828 0.07609861831267738 -0.1010604600732937 2.223331929542787 -1.0447042694280948 0.143570821627497 -0.590690222360833 -1.2233398291027628 -1.3680051569840306 0.7226604113673316 1.4290315120277235 1.0110884880946711 1.149338519741753 -1.347524511366667 1.2341008625894359 -0.3880265944630747 0.28800397773475683 -0.3525963876373014 -0.04184276150637841 -0.9910340451268066 0.2957740537789838 0.73981610705063 -0.3181357908966937 1.3334352546435277 -0.060743826667141496 0.44080839838447994 2.0408691719324255 0.01760685810436501 0.07339065255840484 -0.2449236406552182 -0.7894857112478014 0.87140026726626 2.118813940975691 -2.0263971110984977 0.8900773622448512 0.9246047866094722 1.0339497930484822 1.3673983603994366 0.43105109596300095 1.9482813500122278 -0.4470112446380866 -0.035432027663902535 0.787546817075656 -1.9434007495494943 0.4090005451145677 0.24869098820352906 1.073007895540658 0.5629675406004003 0.28109546944947106 -0.47892985568645075 -0.09836087152561397 0.32077764748413345 0.32363220903472995 -1.059136282062548 0.9294225311627591 -0.03863744626093988 -0.9792956874003631 -0.24329417206249376 0.7256823089898979 -0.42633322387481865 0.3611476550379372 -2.3463984897538976 1.0548915498654539 -0.8925787769486815 0.5268778369358884 -1.018732141006197 -0.7123563238364403 -0.3757609242002919 1.816812871308447 0.8465733009069937 -0.038922019650269146 0.9348029905094071 1.7647288761695676 0.5551016120001707 0.7657971401703622 0.8618452102471181 -0.3995059414680955 -0.4444241057637709 2.4022982948177987 1.0949972763045017 0.4441237425617491 -0.3182333617928316 0.4950676706523486 0.2741912871254772 -0.2457832911585167 -1.3399922052494726 -0.2863216619353213 0.31814467988657524 -1.1187282371666778 1.387151690861261 0.6750654336589844 -0.8647220214567696 0.9151557755728521 -0.5180665467205843 1.348731582429985 0.018803784303486004 0.1253279390746232 -0.6720407467655561 1.2087735634078813 0.974503035300994 -0.2860401048082253 -1.4951706049274582 -0.021416803679996658 0.7008164278527814 -0.9070637806784777 -0.03188652841954336 -0.32725033917075785 -1.0125953301795683 0.04068145459451708 -0.24330204380218182 -0.7825054738550995 0.4322675685625117 0.947009615627191 -1.3269760707418865 -2.0655016649011047 -0.36134846991470493 -0.2626401136507063 0.8451690362090122 -1.396681734896021 0.5706124372157386 0.41497169860598 0.13170583706456793 -0.7825754559335248 -3.1948988336056345 0.7686444846438977 -0.6054314092271285 1.6327935564478435 0.32353071791396953 0.656717620710739 0.4782101295512582 -1.3407335537448326 0.7283283538739157 0.25105691466173685 0.6995996303551398 0.8786557041134223 0.47293807900010887 -0.6118571118356358 1.6088482085224296 0.7612861780820702 0.7196027346569279 3.249475585688219 1.0506845884452116 -0.14338294970770038 0.09149934133255988 1.8977863927000753 0.6451490036984913 0.4640625225510533 0.059583856427389156 1.3354544456422548 0.41526847436781344 -0.25499961157468853 1.062033184730088 0.0047336985176321565 0.05994955147528166 -0.9903192195586319 1.1165077196703668 0.7856497628825673 -1.1616468447251014 -0.7793235704095246 0.5024532825317628 -0.3508855320610908 0.36648261831618684 -0.2809599429031005 -0.7100380683052656 0.624179154218689 -1.2053474528124448 0.2426638760961637 0.682825202941131 -1.8960964902695725 0.9821194187031864 0.6473777848884489 -0.5492926886255325 0.35675655039762494 -0.15551635814411444 1.8717806666022365 -0.13759908391569764 0.0998473981844 1.003822542975798 0.2710116192594932 0.4315150238581681 -0.9678451982472801 0.5654414237259017 2.327260846902518 -0.38092353875052876 1.078801926781088 0.6662682183989658 0.8666378298281439 0.018108818234912196 0.4618510516307102 0.11463494163043024 0.38369167061313525 0.00998304653314877 -0.8187022331614419 2.331430907497511 -0.1948983083101739 -0.19087141501827778 -0.016752918520949196 1.1066136917115257 -0.4596078768828172 -0.3160180722125022 0.714061072574188 2.3542050174628217 -1.2088344543632956 -0.03021846435088555 -0.8428740569556289 0.85859172689389 1.9529106300136185 0.9502901615406155 -0.31664928254998326 0.2940144493761958 0.30150786947329083 0.5520390427874613 -0.6203201193075429 0.18167480677550787 0.7187157656415872 -2.0534344651162675 0.34195584807251866 0.40758445091246603 -0.29891925527427204 1.2079673574533385 -0.5605073496910367 0.39291285996860575 -0.8613490619639895 -0.19345033492350125 -0.2420212269846189 -0.8140647013354867 -0.3204943781315488 -0.36985085747386187 -0.0990685229983186 0.43018477510866404 -2.428455163325524 -2.2982434567880152 0.663620267645329 0.3897660831892413 -1.3561760775458085 1.1862756665619931 0.2827522070511344 -1.1547418556239488 -0.43860375870550117 -0.15135728032456724 -0.0700070540459369 0.3978609395236911 0.17846470257928562 0.3848915899146291 0.007217609936688155 0.31678159609086864 0.28173820437461833 0.25948915339299666 1.6855032092405549 -2.0579740798927144 0.06222949189611507 0.23949557104058536 0.8378721133437443 -0.7343330227395255 0.007830159976083443 -0.1261893716865625 -0.3454164561824531 0.9940192661960773 -0.2043087053465891 0.21641998805453883 -1.684657817051103 1.1005229365175182 0.12012161030461262 -0.2882893605085431 -1.2790280968279324 0.0189382093267118 -0.4171741008672159 1.1129603163757567 0.08590350351140347 0.8831310589946425 1.3911128774705417 1.5264391811894364 -0.2225773785569564 -0.12170783741155888 1.093684261474738 -0.9098579704548919 -1.0084369530387058 0.6457484315602408 0.6385149229621087 -2.0924457158972007 0.19362342377872105 -0.5267669513610084 -0.3151137628720213 0.35600053487254907 0.5192174590876845 0.3009816910067037 1.343793816245438 -0.30150963454662993 1.4316425202215095 2.393820617145659 -0.23146562864881692 0.43819036527886374 -0.5388710583643936 0.20889533504410665 0.39063225882566366 0.2276503549673041 0.06699179010863121 0.3419708145886851 0.8710775992484217 0.07199616890576607 0.7264903273762517 -0.9977680591849133 1.7355319954014394 1.180679336111353 0.7853852235702673 0.05172277840408538 0.43001649601349273 -0.552767704759494 -0.9540455676111734 0.24973783982443648 -2.047669354958803 0.7973248448052968 -0.19471203527398565 1.1255869695576939 0.9656708837960296 0.8500720326702158 0.26330399803302956 -1.1454061042117039 0.8443114765881345 -0.3729979123112658 1.050900340866892 -1.1216126918005853 -0.22176208549520263 1.0672179686130625 0.20407245648700292 -0.557827842162951 0.15612331270073465 0.973454219028638 0.7051526059852685 0.3660686556948407 0.5714428915857308 0.4193406506074436 0.9172486695885812 -0.12508175673422586 0.41996905578129934 0.41143007558473194 -0.07867951051897742 -1.4049183801730676 -0.14807928921379676 1.231811195889852 -0.7002326490016567 0.16971304975797832 -0.8188907303848325 1.577886665718066 0.40736486410754125 0.38517873865917013 0.6881723539858499 0.6486483206196507 0.21140663533118653 0.5500422313373446 -3.2511967438267426 -0.5399226711620823 0.32537143006469077 1.6094071432420798 -2.1728302483325908 1.6325716569172846 0.9578314567192636 0.21971460057958303 -0.42972964303291145 -1.7351150962812991 -0.41501463549553236 2.0324179564288807 0.45879218769268765 2.095627289972185 -0.47249311321293824 -0.4185390908114 0.07032883694023441 0.3709055578502552 -1.165394111728926 0.4551990013916457 -0.12735016547254924 0.5864082038245526 1.0328245375838403 0.07596205599661453 -0.05945694643667161 1.3830382677678503 -0.6193249837007984 0.9595064373076644 1.227204315720229 -0.05602771300219415 -0.22604360172977694 1.3743063568412188 0.9215517322110934 0.7768317632938082 0.28171417011791466 -0.47378405432575643 -0.458119996993737 1.6603875176436327 0.05815752647233357 0.6595744369604396 -1.0798772846141589 0.08541265726609337 -0.9244275749725052 -0.8655608034558254 -0.19253674949905691 -1.2492247401648968 0.8294536134496292 -0.44693568621797436 -0.10452130808565198 -0.6889228639094364 -0.4712808220100378 0.2607043653856442 0.12885584694088137 -0.32650653052584977 1.2548185320917598 -0.7862016329888164 -2.8423299384460976 -0.9378339518012413 -0.44511052736154433 1.47085350954917 0.8089327941255455 0.04892505182661077 0.8411143344530058 0.4811910327041576 -1.0390837515934757 -1.5559797161195301 -1.0696590245971815 0.11102047119975367 -1.850076086681315 -1.4639190260011476 0.11161287981214404 -0.09400245489441847 -2.6659020289321553 0.4906368035609062 0.9056677866406484 0.13705299165747462 0.22306735181255818 -0.09192398885433731 0.17488845154172405 -0.7860697025885113 -1.3493718494951632 3.5397156411530055 -0.015121808467167314 -1.6663640968034847 -0.47809824193418476 1.813010679403394 0.510044442177138 0.04166568293790773 0.3070973183518555 -0.5277676747069064 0.48916961410561166 -0.1648289097192773 -1.6652918989823033 0.3303532457189593 0.10909518341050786 2.3923485679326975 0.44093108060161773 -0.5285479974753541 -0.03281044206083212 -0.15820334166382752 1.496077579778414 1.5909467840339864 1.7613329635543549 0.03998274983666775 -2.2386658397415813 0.14207456804502214 -0.32173630382978025 -1.301449757614233 -0.6378413475016728 -0.9340195044825521 0.8919012753094214 0.08009029347763864 0.13077524996350967 0.7709405517219126 -0.9425320321341476 -0.5495436849312924 0.29671419508084734 0.5025909217632527 0.607901748354421 1.5688307599528852 -1.4942915261860323 0.08442298801426032 -0.36335599454875683 0.668910480183778 -1.6419624734086284 0.33525645130088244 -1.6799877224727642 0.6473073589461036 0.3509768105830885 0.3609461524896755 0.742283871895113 2.598177707667281 0.2967370800537127 -0.9704681188008674 -1.458598329166959 0.8996908785578115 -1.756475309731937 -0.2338729533095274 -0.2669126365760791 0.35570232479415015 -1.9547028882994972 2.6832879728164465 0.9879334582352256 0.06653363288996043 -2.0227877783779014 -0.8191351443778397 0.3124731222875138 0.040537856835032735 -1.2308426530990817 -1.3567274221985135 -0.8631645020351798 0.09525814905654507 -0.7283038263123488 0.3153946577596577 0.03513585312941685 -0.5075610029849575 0.4169998902322649 -0.11183622583934864 0.6308329661314651 -3.997786663394253 2.096151715544926 0.7521486180207784 -0.12147268049813856 -2.6580344740804858 0.08650982662927956 0.9367584807186756 -0.4984291758053865 -0.8663210065290256 0.6256248350170753 1.01458709040884 0.0989402441142155 -0.6705096348437486 -0.00541997491170193 -0.19130277202514856 -1.5470056679519801 -1.0146904109112522 -3.353989169501936 0.021472111814448948 -1.2912212176272857 -0.6748015497651814 3.8372464298640496 0.3532858196625474 2.929796423075167 -0.5382991274704145 0.3574073183973099 2.9139834833674083 -0.3191228308999709 0.9145377949442226 -1.0155971981185368 -0.9601152479916802 0.956580992015696 -0.7382851066473927 -1.1984583443334118 0.16409752714829634 -0.8792989590647284 1.5365461258577469 -0.9439291517922458 0.13294981223987498 0.5171244710957925 2.640666991411097 0.5523108485991212 0.728797024452246 1.0448574188752344 1.6312146961685434 -2.072911841133803 0.46985220774059117 -0.5171444495716702 1.969006410180592 1.3030924866041427 0.5457424624938211 0.28345460351450114 -3.603876040875701 0.5059105733398737 -0.5023872530267941 0.7042209522593326 3.049732204692827 0.7866197140296556 1.1828131164807594 -1.2831992743483736 1.3122458368781131 -0.7465060536667285 0.8446924295545087 0.16153574166689483 0.14025378809811398 -0.3674694719825005 0.772911479207661 0.3200361254912064 -1.478692246247498 2.413767532096137 -0.8646349481825016 -1.4404820390562618 -1.2534093517192972 -0.28535312339924385 0.5157862660841769 0.7204096899699913 -0.12398250796846626 2.524203231498936 -3.2400764503880928 -0.8948484727167568 4.571004197700667 0.8278609664214742 0.7638352203113904 -1.2965837985940736 1.4885460239523225 0.6924496196501373 -1.393619915496059 -0.2772432913366665 0.9152737076692664 -1.6550416181922403 -0.7413784474557217 -1.0122804615685135 0.3764230271436566 0.42264923126661763 -0.3871196400640533 1.0753850676365109 -1.7764074533593583 0.9749944358561541 0.6759123862761298 -0.08433727858815757 0.518358360968841 0.9271598891118185 2.3236350457139068 0.8871144008140899 0.058050121748072885 